network unknown {
}
variable AGE {
    type discrete [ 6 ] { AGE_0, AGE_1, AGE_2, AGE_3, AGE_4, AGE_5 };
}
variable D3897 {
    type discrete [ 2 ] { D3897_0, D3897_1 };
}
variable S2345 {
    type discrete [ 2 ] { S2345_0, S2345_1 };
}
variable SEX {
    type discrete [ 2 ] { SEX_0, SEX_1 };
}
probability ( AGE ) {
    table 0.1, 0.1, 0.2, 0.2, 0.2, 0.2 ;
}
probability ( D3897 | AGE, SEX ) {
    table 8.5017141695e-07, 8.5017141695e-07, 8.5017141695e-07, 8.5017141695e-07, 8.5017141695e-07, 8.5017141695e-07, 8.5017141695e-07, 8.5017141695e-07, 8.5017141695e-07, 8.5017141695e-07, 8.5017141695e-07, 8.5017141695e-07, 0.999999149829, 0.999999149829, 0.999999149829, 0.999999149829, 0.999999149829, 0.999999149829, 0.999999149829, 0.999999149829, 0.999999149829, 0.999999149829, 0.999999149829, 0.999999149829 ;
}
probability ( S2345 | D3897 ) {
    table 0.8, 1.0, 0.2, 0.0 ;
}
probability ( SEX ) {
    table 0.5, 0.5 ;
}
