network unknown {
}
variable AGE {
    type discrete [ 6 ] { AGE_0, AGE_1, AGE_2, AGE_3, AGE_4, AGE_5 };
}
variable D4989 {
    type discrete [ 2 ] { D4989_0, D4989_1 };
}
variable S3820 {
    type discrete [ 2 ] { S3820_0, S3820_1 };
}
variable SEX {
    type discrete [ 2 ] { SEX_0, SEX_1 };
}
probability ( AGE ) {
    table 0.1, 0.1, 0.2, 0.2, 0.2, 0.2 ;
}
probability ( D4989 | AGE, SEX ) {
    table 1.250251667e-07, 1.250251667e-07, 1.250251667e-07, 1.250251667e-07, 1.250251667e-07, 1.250251667e-07, 1.250251667e-07, 1.250251667e-07, 1.250251667e-07, 1.250251667e-07, 1.250251667e-07, 1.250251667e-07, 0.999999874975, 0.999999874975, 0.999999874975, 0.999999874975, 0.999999874975, 0.999999874975, 0.999999874975, 0.999999874975, 0.999999874975, 0.999999874975, 0.999999874975, 0.999999874975 ;
}
probability ( S3820 | D4989 ) {
    table 0.8, 1.0, 0.2, 0.0 ;
}
probability ( SEX ) {
    table 0.5, 0.5 ;
}
